<?xml version="1.0"?>
<opencv_storage>
<cascade>
  <stageType>BOOST</stageType>
  <featureType>HAAR</featureType>
  <height>20</height>
  <width>20</width>
  <stageParams>
    <boostType>GAB</boostType>
    <minHitRate>9.9500000476837158e-01</minHitRate>
    <maxFalseAlarm>5.0000000000000000e-01</maxFalseAlarm>
    <weightTrimRate>9.4999999999999996e-01</weightTrimRate>
    <maxDepth>1</maxDepth>
    <maxWeakCount>100</maxWeakCount></stageParams>
  <featureParams>
    <maxCatCount>0</maxCatCount>
    <featSize>1</featSize>
    <mode>BASIC</mode></featureParams>
  <stageNum>12</stageNum>
  <stages>
    <!-- stage 0 -->
    <_>
      <maxWeakCount>4</maxWeakCount>
      <stageThreshold>-3.2353940606117249e-01</stageThreshold>
      <weakClassifiers>
        <_>
          <internalNodes>
            0 -1 3 2.0042367279529572e-02</internalNodes>
          <leafValues>
            -4.5317354798316956e-01 8.9640927314758301e-01</leafValues></_>
        <_>
          <internalNodes>
            0 -1 14 3.6126315593719482e-02</internalNodes>
          <leafValues>
            -7.0289379358291626e-01 6.8198633193969727e-01</leafValues></_>
        <_>
          <internalNodes>
            0 -1 33 -2.7969785151071846e-04</internalNodes>
          <leafValues>
            -9.5015752315521240e-01 3.8991263508796692e-01</leafValues></_>
        <_>
          <internalNodes>
            0 -1 33 2.8285972075536847e-04</internalNodes>
          <leafValues>
            4.4261527061462402e-01 -8.9752453565597534e-01</leafValues></_></weakClassifiers></_>
    <!-- stage 1 -->
    <_>
      <maxWeakCount>5</maxWeakCount>
      <stageThreshold>-9.2344677448272705e-01</stageThreshold>
      <weakClassifiers>
        <_>
          <internalNodes>
            0 -1 23 -2.2047132370062172e-04</internalNodes>
          <leafValues>
            -8.9353615045547485e-01 6.3017481565475464e-01</leafValues></_>
        <_>
          <internalNodes>
            0 -1 54 -2.0901059731841087e-02</internalNodes>
          <leafValues>
            8.6645650863647461e-01 -5.0998061895370483e-01</leafValues></_>
        <_>
          <internalNodes>
            0 -1 23 3.6959740100428462e-04</internalNodes>
          <leafValues>
            5.3300768136978149e-01 -9.0586793422698975e-01</leafValues></_>
        <_>
          <internalNodes>
            0 -1 6 1.6972284764051437e-02</internalNodes>
          <leafValues>
            -4.8834159970283508e-01 7.3576688766479492e-01</leafValues></_>
        <_>
          <internalNodes>
            0 -1 31 -4.1898241033777595e-04</internalNodes>
          <leafValues>
            -9.7442084550857544e-01 3.5056859254837036e-01</leafValues></_></weakClassifiers></_>
    <!-- stage 2 -->
    <_>
      <maxWeakCount>2</maxWeakCount>
      <stageThreshold>-1.9271367788314819e-01</stageThreshold>
      <weakClassifiers>
        <_>
          <internalNodes>
            0 -1 28 1.7522363923490047e-03</internalNodes>
          <leafValues>
            7.5129026174545288e-01 -9.4440269470214844e-01</leafValues></_>
        <_>
          <internalNodes>
            0 -1 34 -1.1746922507882118e-02</internalNodes>
          <leafValues>
            7.5168901681900024e-01 -5.5438959598541260e-01</leafValues></_></weakClassifiers></_>
    <!-- stage 3 -->
    <_>
      <maxWeakCount>5</maxWeakCount>
      <stageThreshold>-9.7982603311538696e-01</stageThreshold>
      <weakClassifiers>
        <_>
          <internalNodes>
            0 -1 42 -2.4052010849118233e-04</internalNodes>
          <leafValues>
            -9.3790149688720703e-01 5.9919393062591553e-01</leafValues></_>
        <_>
          <internalNodes>
            0 -1 1 3.1271941959857941e-02</internalNodes>
          <leafValues>
            -5.4815095663070679e-01 7.4092304706573486e-01</leafValues></_>
        <_>
          <internalNodes>
            0 -1 38 -1.0968672577291727e-03</internalNodes>
          <leafValues>
            4.6122679114341736e-01 -8.0613666772842407e-01</leafValues></_>
        <_>
          <internalNodes>
            0 -1 53 1.8471393734216690e-02</internalNodes>
          <leafValues>
            -4.3585878610610962e-01 7.3155903816223145e-01</leafValues></_>
        <_>
          <internalNodes>
            0 -1 7 2.1798256784677505e-02</internalNodes>
          <leafValues>
            -5.7756268978118896e-01 4.8085841536521912e-01</leafValues></_></weakClassifiers></_>
    <!-- stage 4 -->
    <_>
      <maxWeakCount>4</maxWeakCount>
      <stageThreshold>-4.4727328419685364e-01</stageThreshold>
      <weakClassifiers>
        <_>
          <internalNodes>
            0 -1 32 6.5380061278119683e-04</internalNodes>
          <leafValues>
            5.8579355478286743e-01 -9.3743014335632324e-01</leafValues></_>
        <_>
          <internalNodes>
            0 -1 13 2.9218927025794983e-02</internalNodes>
          <leafValues>
            -5.0122964382171631e-01 6.6613221168518066e-01</leafValues></_>
        <_>
          <internalNodes>
            0 -1 32 -2.7869417681358755e-04</internalNodes>
          <leafValues>
            -9.0717041492462158e-01 3.5046190023422241e-01</leafValues></_>
        <_>
          <internalNodes>
            0 -1 16 -7.6648090034723282e-03</internalNodes>
          <leafValues>
            5.3928172588348389e-01 -5.2643722295761108e-01</leafValues></_></weakClassifiers></_>
    <!-- stage 5 -->
    <_>
      <maxWeakCount>7</maxWeakCount>
      <stageThreshold>-9.9542403221130371e-01</stageThreshold>
      <weakClassifiers>
        <_>
          <internalNodes>
            0 -1 21 -2.0126921590417624e-03</internalNodes>
          <leafValues>
            5.6601661443710327e-01 -7.7209800481796265e-01</leafValues></_>
        <_>
          <internalNodes>
            0 -1 57 -1.1865288950502872e-02</internalNodes>
          <leafValues>
            7.4565786123275757e-01 -4.4506597518920898e-01</leafValues></_>
        <_>
          <internalNodes>
            0 -1 0 1.1843927204608917e-01</internalNodes>
          <leafValues>
            -4.4783511757850647e-01 5.9818571805953979e-01</leafValues></_>
        <_>
          <internalNodes>
            0 -1 24 5.5794115178287029e-04</internalNodes>
          <leafValues>
            3.1814640760421753e-01 -8.7902140617370605e-01</leafValues></_>
        <_>
          <internalNodes>
            0 -1 19 3.2256653066724539e-03</internalNodes>
          <leafValues>
            -6.0276132822036743e-01 3.3422267436981201e-01</leafValues></_>
        <_>
          <internalNodes>
            0 -1 56 -1.6700440319254994e-03</internalNodes>
          <leafValues>
            5.5733275413513184e-01 -4.2073476314544678e-01</leafValues></_>
        <_>
          <internalNodes>
            0 -1 30 4.0781268035061657e-04</internalNodes>
          <leafValues>
            2.9699394106864929e-01 -9.4473224878311157e-01</leafValues></_></weakClassifiers></_>
    <!-- stage 6 -->
    <_>
      <maxWeakCount>5</maxWeakCount>
      <stageThreshold>-1.0480579137802124e+00</stageThreshold>
      <weakClassifiers>
        <_>
          <internalNodes>
            0 -1 30 -2.3580495326314121e-04</internalNodes>
          <leafValues>
            -9.0167158842086792e-01 6.1989504098892212e-01</leafValues></_>
        <_>
          <internalNodes>
            0 -1 45 8.9075486175715923e-04</internalNodes>
          <leafValues>
            -6.9888031482696533e-01 5.0862693786621094e-01</leafValues></_>
        <_>
          <internalNodes>
            0 -1 5 2.6887418702244759e-02</internalNodes>
          <leafValues>
            -4.0301492810249329e-01 6.9631159305572510e-01</leafValues></_>
        <_>
          <internalNodes>
            0 -1 22 -5.3520873188972473e-03</internalNodes>
          <leafValues>
            2.9134619235992432e-01 -8.9642506837844849e-01</leafValues></_>
        <_>
          <internalNodes>
            0 -1 27 -6.5070308744907379e-02</internalNodes>
          <leafValues>
            -8.5740387439727783e-01 1.9589509069919586e-01</leafValues></_></weakClassifiers></_>
    <!-- stage 7 -->
    <_>
      <maxWeakCount>6</maxWeakCount>
      <stageThreshold>-8.7159079313278198e-01</stageThreshold>
      <weakClassifiers>
        <_>
          <internalNodes>
            0 -1 51 -4.6621315414085984e-04</internalNodes>
          <leafValues>
            -8.7268519401550293e-01 5.6305116415023804e-01</leafValues></_>
        <_>
          <internalNodes>
            0 -1 9 -7.3248386383056641e-02</internalNodes>
          <leafValues>
            5.0435757637023926e-01 -5.2704155445098877e-01</leafValues></_>
        <_>
          <internalNodes>
            0 -1 51 5.3752260282635689e-04</internalNodes>
          <leafValues>
            3.7723293900489807e-01 -8.8698822259902954e-01</leafValues></_>
        <_>
          <internalNodes>
            0 -1 10 6.7587774246931076e-03</internalNodes>
          <leafValues>
            -5.8393806219100952e-01 4.7239768505096436e-01</leafValues></_>
        <_>
          <internalNodes>
            0 -1 12 -1.6418413724750280e-04</internalNodes>
          <leafValues>
            3.5613811016082764e-01 -7.0498657226562500e-01</leafValues></_>
        <_>
          <internalNodes>
            0 -1 41 -7.9201243352144957e-05</internalNodes>
          <leafValues>
            -9.1424137353897095e-01 2.0718780159950256e-01</leafValues></_></weakClassifiers></_>
    <!-- stage 8 -->
    <_>
      <maxWeakCount>5</maxWeakCount>
      <stageThreshold>-6.8306142091751099e-01</stageThreshold>
      <weakClassifiers>
        <_>
          <internalNodes>
            0 -1 39 -1.3300601858645678e-03</internalNodes>
          <leafValues>
            6.7280876636505127e-01 -6.5173411369323730e-01</leafValues></_>
        <_>
          <internalNodes>
            0 -1 36 1.5202010981738567e-03</internalNodes>
          <leafValues>
            -3.7252700328826904e-01 6.8563508987426758e-01</leafValues></_>
        <_>
          <internalNodes>
            0 -1 15 1.0830886894837022e-03</internalNodes>
          <leafValues>
            2.8689894080162048e-01 -9.1444951295852661e-01</leafValues></_>
        <_>
          <internalNodes>
            0 -1 25 1.2997046113014221e-02</internalNodes>
          <leafValues>
            -6.1198186874389648e-01 3.7519782781600952e-01</leafValues></_>
        <_>
          <internalNodes>
            0 -1 55 7.8313611447811127e-03</internalNodes>
          <leafValues>
            -3.2089710235595703e-01 7.0894837379455566e-01</leafValues></_></weakClassifiers></_>
    <!-- stage 9 -->
    <_>
      <maxWeakCount>8</maxWeakCount>
      <stageThreshold>-1.0798902511596680e+00</stageThreshold>
      <weakClassifiers>
        <_>
          <internalNodes>
            0 -1 8 4.3598944321274757e-03</internalNodes>
          <leafValues>
            -3.9338949322700500e-01 6.2406015396118164e-01</leafValues></_>
        <_>
          <internalNodes>
            0 -1 49 2.3339351173490286e-04</internalNodes>
          <leafValues>
            2.8305858373641968e-01 -9.5006346702575684e-01</leafValues></_>
        <_>
          <internalNodes>
            0 -1 40 3.0820305255474523e-05</internalNodes>
          <leafValues>
            -5.9638261795043945e-01 4.5878762006759644e-01</leafValues></_>
        <_>
          <internalNodes>
            0 -1 52 1.3881767168641090e-02</internalNodes>
          <leafValues>
            -4.8326182365417480e-01 4.1069716215133667e-01</leafValues></_>
        <_>
          <internalNodes>
            0 -1 46 -1.0500653297640383e-04</internalNodes>
          <leafValues>
            -8.6032611131668091e-01 2.2178357839584351e-01</leafValues></_>
        <_>
          <internalNodes>
            0 -1 37 -9.8872144008055329e-05</internalNodes>
          <leafValues>
            2.5333112478256226e-01 -7.2325092554092407e-01</leafValues></_>
        <_>
          <internalNodes>
            0 -1 47 4.8929774202406406e-03</internalNodes>
          <leafValues>
            -5.5460071563720703e-01 3.5648474097251892e-01</leafValues></_>
        <_>
          <internalNodes>
            0 -1 44 9.2575923190452158e-05</internalNodes>
          <leafValues>
            2.1651056408882141e-01 -8.5585486888885498e-01</leafValues></_></weakClassifiers></_>
    <!-- stage 10 -->
    <_>
      <maxWeakCount>7</maxWeakCount>
      <stageThreshold>-8.0838638544082642e-01</stageThreshold>
      <weakClassifiers>
        <_>
          <internalNodes>
            0 -1 20 1.3104590587317944e-02</internalNodes>
          <leafValues>
            -4.1071429848670959e-01 6.3778704404830933e-01</leafValues></_>
        <_>
          <internalNodes>
            0 -1 2 3.6277897655963898e-02</internalNodes>
          <leafValues>
            -4.5033404231071472e-01 5.5908757448196411e-01</leafValues></_>
        <_>
          <internalNodes>
            0 -1 49 -1.5813662685104646e-05</internalNodes>
          <leafValues>
            -8.5698550939559937e-01 2.5134533643722534e-01</leafValues></_>
        <_>
          <internalNodes>
            0 -1 48 -1.8044690368697047e-03</internalNodes>
          <leafValues>
            3.0631455779075623e-01 -6.6358363628387451e-01</leafValues></_>
        <_>
          <internalNodes>
            0 -1 26 -4.6712933108210564e-03</internalNodes>
          <leafValues>
            2.3088401556015015e-01 -7.9734313488006592e-01</leafValues></_>
        <_>
          <internalNodes>
            0 -1 18 -1.1767956614494324e-01</internalNodes>
          <leafValues>
            -8.7048184871673584e-01 1.8089509010314941e-01</leafValues></_>
        <_>
          <internalNodes>
            0 -1 42 6.4992287661880255e-04</internalNodes>
          <leafValues>
            1.3459986448287964e-01 -9.5819908380508423e-01</leafValues></_></weakClassifiers></_>
    <!-- stage 11 -->
    <_>
      <maxWeakCount>7</maxWeakCount>
      <stageThreshold>-9.7877252101898193e-01</stageThreshold>
      <weakClassifiers>
        <_>
          <internalNodes>
            0 -1 29 1.6027921446948312e-05</internalNodes>
          <leafValues>
            -3.3333334326744080e-01 6.8620789051055908e-01</leafValues></_>
        <_>
          <internalNodes>
            0 -1 50 -1.7242644680663943e-03</internalNodes>
          <leafValues>
            3.1944173574447632e-01 -9.2382109165191650e-01</leafValues></_>
        <_>
          <internalNodes>
            0 -1 17 -3.1663670670241117e-03</internalNodes>
          <leafValues>
            4.0112102031707764e-01 -6.3756304979324341e-01</leafValues></_>
        <_>
          <internalNodes>
            0 -1 11 -9.2632678570225835e-04</internalNodes>
          <leafValues>
            4.0618017315864563e-01 -4.9244478344917297e-01</leafValues></_>
        <_>
          <internalNodes>
            0 -1 4 7.8964456915855408e-03</internalNodes>
          <leafValues>
            -5.9526264667510986e-01 3.7961691617965698e-01</leafValues></_>
        <_>
          <internalNodes>
            0 -1 43 -9.6702147857286036e-05</internalNodes>
          <leafValues>
            -8.5804438591003418e-01 2.3153632879257202e-01</leafValues></_>
        <_>
          <internalNodes>
            0 -1 35 6.5489364787936211e-03</internalNodes>
          <leafValues>
            -3.1887510418891907e-01 6.2646055221557617e-01</leafValues></_></weakClassifiers></_></stages>
  <features>
    <_>
      <rects>
        <_>
          0 1 8 18 -1.</_>
        <_>
          4 1 4 18 2.</_></rects>
      <tilted>0</tilted></_>
    <_>
      <rects>
        <_>
          0 5 4 9 -1.</_>
        <_>
          2 5 2 9 2.</_></rects>
      <tilted>0</tilted></_>
    <_>
      <rects>
        <_>
          0 5 4 10 -1.</_>
        <_>
          2 5 2 10 2.</_></rects>
      <tilted>0</tilted></_>
    <_>
      <rects>
        <_>
          0 6 4 10 -1.</_>
        <_>
          2 6 2 10 2.</_></rects>
      <tilted>0</tilted></_>
    <_>
      <rects>
        <_>
          0 7 12 2 -1.</_>
        <_>
          4 7 4 2 3.</_></rects>
      <tilted>0</tilted></_>
    <_>
      <rects>
        <_>
          0 8 6 4 -1.</_>
        <_>
          2 8 2 4 3.</_></rects>
      <tilted>0</tilted></_>
    <_>
      <rects>
        <_>
          0 9 6 3 -1.</_>
        <_>
          2 9 2 3 3.</_></rects>
      <tilted>0</tilted></_>
    <_>
      <rects>
        <_>
          2 4 18 2 -1.</_>
        <_>
          8 4 6 2 3.</_></rects>
      <tilted>0</tilted></_>
    <_>
      <rects>
        <_>
          2 5 3 12 -1.</_>
        <_>
          2 9 3 4 3.</_></rects>
      <tilted>0</tilted></_>
    <_>
      <rects>
        <_>
          3 12 16 8 -1.</_>
        <_>
          3 16 16 4 2.</_></rects>
      <tilted>0</tilted></_>
    <_>
      <rects>
        <_>
          4 1 12 3 -1.</_>
        <_>
          4 2 12 1 3.</_></rects>
      <tilted>0</tilted></_>
    <_>
      <rects>
        <_>
          4 6 3 4 -1.</_>
        <_>
          5 6 1 4 3.</_></rects>
      <tilted>0</tilted></_>
    <_>
      <rects>
        <_>
          5 9 6 3 -1.</_>
        <_>
          7 9 2 3 3.</_></rects>
      <tilted>0</tilted></_>
    <_>
      <rects>
        <_>
          6 0 7 4 -1.</_>
        <_>
          6 2 7 2 2.</_></rects>
      <tilted>0</tilted></_>
    <_>
      <rects>
        <_>
          6 0 8 12 -1.</_>
        <_>
          6 4 8 4 3.</_></rects>
      <tilted>0</tilted></_>
    <_>
      <rects>
        <_>
          6 12 9 3 -1.</_>
        <_>
          9 12 3 3 3.</_></rects>
      <tilted>0</tilted></_>
    <_>
      <rects>
        <_>
          6 18 8 2 -1.</_>
        <_>
          6 19 8 1 2.</_></rects>
      <tilted>0</tilted></_>
    <_>
      <rects>
        <_>
          6 18 9 2 -1.</_>
        <_>
          6 19 9 1 2.</_></rects>
      <tilted>0</tilted></_>
    <_>
      <rects>
        <_>
          7 2 6 16 -1.</_>
        <_>
          7 10 6 8 2.</_></rects>
      <tilted>0</tilted></_>
    <_>
      <rects>
        <_>
          7 3 9 4 -1.</_>
        <_>
          7 5 9 2 2.</_></rects>
      <tilted>0</tilted></_>
    <_>
      <rects>
        <_>
          7 3 9 6 -1.</_>
        <_>
          7 5 9 2 3.</_></rects>
      <tilted>0</tilted></_>
    <_>
      <rects>
        <_>
          7 4 7 12 -1.</_>
        <_>
          7 8 7 4 3.</_></rects>
      <tilted>0</tilted></_>
    <_>
      <rects>
        <_>
          7 5 8 12 -1.</_>
        <_>
          7 11 8 6 2.</_></rects>
      <tilted>0</tilted></_>
    <_>
      <rects>
        <_>
          7 10 1 4 -1.</_>
        <_>
          7 12 1 2 2.</_></rects>
      <tilted>0</tilted></_>
    <_>
      <rects>
        <_>
          7 10 2 4 -1.</_>
        <_>
          7 12 2 2 2.</_></rects>
      <tilted>0</tilted></_>
    <_>
      <rects>
        <_>
          8 0 6 4 -1.</_>
        <_>
          8 2 6 2 2.</_></rects>
      <tilted>0</tilted></_>
    <_>
      <rects>
        <_>
          8 3 5 8 -1.</_>
        <_>
          8 7 5 4 2.</_></rects>
      <tilted>0</tilted></_>
    <_>
      <rects>
        <_>
          8 3 5 12 -1.</_>
        <_>
          8 9 5 6 2.</_></rects>
      <tilted>0</tilted></_>
    <_>
      <rects>
        <_>
          8 10 4 6 -1.</_>
        <_>
          8 13 4 3 2.</_></rects>
      <tilted>0</tilted></_>
    <_>
      <rects>
        <_>
          8 11 3 4 -1.</_>
        <_>
          8 13 3 2 2.</_></rects>
      <tilted>0</tilted></_>
    <_>
      <rects>
        <_>
          8 12 4 3 -1.</_>
        <_>
          10 12 2 3 2.</_></rects>
      <tilted>0</tilted></_>
    <_>
      <rects>
        <_>
          8 12 5 2 -1.</_>
        <_>
          8 13 5 1 2.</_></rects>
      <tilted>0</tilted></_>
    <_>
      <rects>
        <_>
          8 12 5 3 -1.</_>
        <_>
          8 13 5 1 3.</_></rects>
      <tilted>0</tilted></_>
    <_>
      <rects>
        <_>
          8 13 6 1 -1.</_>
        <_>
          11 13 3 1 2.</_></rects>
      <tilted>0</tilted></_>
    <_>
      <rects>
        <_>
          8 16 4 4 -1.</_>
        <_>
          8 18 4 2 2.</_></rects>
      <tilted>0</tilted></_>
    <_>
      <rects>
        <_>
          9 1 2 3 -1.</_>
        <_>
          9 2 2 1 3.</_></rects>
      <tilted>0</tilted></_>
    <_>
      <rects>
        <_>
          9 8 3 3 -1.</_>
        <_>
          9 9 3 1 3.</_></rects>
      <tilted>0</tilted></_>
    <_>
      <rects>
        <_>
          9 9 3 8 -1.</_>
        <_>
          9 13 3 4 2.</_></rects>
      <tilted>0</tilted></_>
    <_>
      <rects>
        <_>
          9 9 3 10 -1.</_>
        <_>
          9 14 3 5 2.</_></rects>
      <tilted>0</tilted></_>
    <_>
      <rects>
        <_>
          9 10 2 10 -1.</_>
        <_>
          9 15 2 5 2.</_></rects>
      <tilted>0</tilted></_>
    <_>
      <rects>
        <_>
          9 11 3 4 -1.</_>
        <_>
          9 13 3 2 2.</_></rects>
      <tilted>0</tilted></_>
    <_>
      <rects>
        <_>
          9 12 2 4 -1.</_>
        <_>
          9 14 2 2 2.</_></rects>
      <tilted>0</tilted></_>
    <_>
      <rects>
        <_>
          9 12 3 4 -1.</_>
        <_>
          9 14 3 2 2.</_></rects>
      <tilted>0</tilted></_>
    <_>
      <rects>
        <_>
          9 14 4 1 -1.</_>
        <_>
          11 14 2 1 2.</_></rects>
      <tilted>0</tilted></_>
    <_>
      <rects>
        <_>
          9 14 2 2 -1.</_>
        <_>
          9 15 2 1 2.</_></rects>
      <tilted>0</tilted></_>
    <_>
      <rects>
        <_>
          9 14 2 6 -1.</_>
        <_>
          9 16 2 2 3.</_></rects>
      <tilted>0</tilted></_>
    <_>
      <rects>
        <_>
          9 14 3 2 -1.</_>
        <_>
          9 15 3 1 2.</_></rects>
      <tilted>0</tilted></_>
    <_>
      <rects>
        <_>
          9 14 3 6 -1.</_>
        <_>
          9 16 3 2 3.</_></rects>
      <tilted>0</tilted></_>
    <_>
      <rects>
        <_>
          10 10 1 10 -1.</_>
        <_>
          10 15 1 5 2.</_></rects>
      <tilted>0</tilted></_>
    <_>
      <rects>
        <_>
          10 12 1 4 -1.</_>
        <_>
          10 14 1 2 2.</_></rects>
      <tilted>0</tilted></_>
    <_>
      <rects>
        <_>
          11 5 4 10 -1.</_>
        <_>
          11 10 4 5 2.</_></rects>
      <tilted>0</tilted></_>
    <_>
      <rects>
        <_>
          12 10 2 4 -1.</_>
        <_>
          12 12 2 2 2.</_></rects>
      <tilted>0</tilted></_>
    <_>
      <rects>
        <_>
          14 9 6 3 -1.</_>
        <_>
          16 9 2 3 3.</_></rects>
      <tilted>0</tilted></_>
    <_>
      <rects>
        <_>
          14 9 6 4 -1.</_>
        <_>
          16 9 2 4 3.</_></rects>
      <tilted>0</tilted></_>
    <_>
      <rects>
        <_>
          16 7 4 7 -1.</_>
        <_>
          18 7 2 7 2.</_></rects>
      <tilted>0</tilted></_>
    <_>
      <rects>
        <_>
          16 9 3 3 -1.</_>
        <_>
          17 9 1 3 3.</_></rects>
      <tilted>0</tilted></_>
    <_>
      <rects>
        <_>
          16 12 3 2 -1.</_>
        <_>
          17 12 1 2 3.</_></rects>
      <tilted>0</tilted></_>
    <_>
      <rects>
        <_>
          18 5 2 12 -1.</_>
        <_>
          19 5 1 12 2.</_></rects>
      <tilted>0</tilted></_></features></cascade>
</opencv_storage>
