<?xml version="1.0"?>
<opencv_storage>
<stage5>
  <maxWeakCount>7</maxWeakCount>
  <stageThreshold>-9.9542403221130371e-01</stageThreshold>
  <weakClassifiers>
    <_>
      <internalNodes>
        0 -1 47163 -2.0126921590417624e-03</internalNodes>
      <leafValues>
        5.6601661443710327e-01 -7.7209800481796265e-01</leafValues></_>
    <_>
      <internalNodes>
        0 -1 77969 -1.1865288950502872e-02</internalNodes>
      <leafValues>
        7.4565786123275757e-01 -4.4506597518920898e-01</leafValues></_>
    <_>
      <internalNodes>
        0 -1 984 1.1843927204608917e-01</internalNodes>
      <leafValues>
        -4.4783511757850647e-01 5.9818571805953979e-01</leafValues></_>
    <_>
      <internalNodes>
        0 -1 48785 5.5794115178287029e-04</internalNodes>
      <leafValues>
        3.1814640760421753e-01 -8.7902140617370605e-01</leafValues></_>
    <_>
      <internalNodes>
        0 -1 46807 3.2256653066724539e-03</internalNodes>
      <leafValues>
        -6.0276132822036743e-01 3.3422267436981201e-01</leafValues></_>
    <_>
      <internalNodes>
        0 -1 76419 -1.6700440319254994e-03</internalNodes>
      <leafValues>
        5.5733275413513184e-01 -4.2073476314544678e-01</leafValues></_>
    <_>
      <internalNodes>
        0 -1 53902 4.0781268035061657e-04</internalNodes>
      <leafValues>
        2.9699394106864929e-01 -9.4473224878311157e-01</leafValues></_></weakClassifiers></stage5>
</opencv_storage>
